digraph Tree {
node [shape=box, style="filled", color="black"] ;
0 [label="roof_aspect <= 90.5\nmse = 61398.467\nsamples = 800\nvalue = 1156.349", fillcolor="#eead7e"] ;
1 [label="roof_tilt <= 6.5\nmse = 36578.184\nsamples = 427\nvalue = 1311.515", fillcolor="#eba06a"] ;
0 -> 1 [labeldistance=2.5, labelangle=45, headlabel="True"] ;
2 [label="horizon_S <= 31.624\nmse = 52721.086\nsamples = 87\nvalue = 1127.379", fillcolor="#efaf82"] ;
1 -> 2 ;
3 [label="roof_area <= 25.807\nmse = 35063.78\nsamples = 78\nvalue = 1174.744", fillcolor="#eeab7c"] ;
2 -> 3 ;
4 [label="(...)", fillcolor="#C0C0C0"] ;
3 -> 4 ;
49 [label="(...)", fillcolor="#C0C0C0"] ;
3 -> 49 ;
154 [label="horizon_SSW <= 34.215\nmse = 17806.099\nsamples = 9\nvalue = 716.889", fillcolor="#f5d1b6"] ;
2 -> 154 ;
155 [label="(...)", fillcolor="#C0C0C0"] ;
154 -> 155 ;
158 [label="(...)", fillcolor="#C0C0C0"] ;
154 -> 158 ;
171 [label="roof_aspect <= 55.5\nmse = 21551.521\nsamples = 340\nvalue = 1358.632", fillcolor="#eb9c64"] ;
1 -> 171 ;
172 [label="horizon_S <= 15.746\nmse = 14521.553\nsamples = 215\nvalue = 1410.367", fillcolor="#ea985d"] ;
171 -> 172 ;
173 [label="(...)", fillcolor="#C0C0C0"] ;
172 -> 173 ;
536 [label="(...)", fillcolor="#C0C0C0"] ;
172 -> 536 ;
593 [label="horizon_S <= 17.891\nmse = 21121.236\nsamples = 125\nvalue = 1269.648", fillcolor="#eca46f"] ;
171 -> 593 ;
594 [label="(...)", fillcolor="#C0C0C0"] ;
593 -> 594 ;
803 [label="(...)", fillcolor="#C0C0C0"] ;
593 -> 803 ;
842 [label="roof_tilt <= 29.5\nmse = 30697.269\nsamples = 373\nvalue = 978.718", fillcolor="#f1bb95"] ;
0 -> 842 [labeldistance=2.5, labelangle=-45, headlabel="False"] ;
843 [label="horizon_S <= 14.07\nmse = 20788.675\nsamples = 243\nvalue = 1046.938", fillcolor="#f0b68c"] ;
842 -> 843 ;
844 [label="roof_aspect <= 117.5\nmse = 15522.2\nsamples = 96\nvalue = 1119.594", fillcolor="#efb083"] ;
843 -> 844 ;
845 [label="(...)", fillcolor="#C0C0C0"] ;
844 -> 845 ;
918 [label="(...)", fillcolor="#C0C0C0"] ;
844 -> 918 ;
1031 [label="horizon_SSE <= 51.96\nmse = 18529.257\nsamples = 147\nvalue = 999.49", fillcolor="#f1ba92"] ;
843 -> 1031 ;
1032 [label="(...)", fillcolor="#C0C0C0"] ;
1031 -> 1032 ;
1315 [label="(...)", fillcolor="#C0C0C0"] ;
1031 -> 1315 ;
1316 [label="roof_aspect <= 140.5\nmse = 24258.468\nsamples = 130\nvalue = 851.2", fillcolor="#f3c6a5"] ;
842 -> 1316 ;
1317 [label="roof_tilt <= 43.5\nmse = 16493.31\nsamples = 66\nvalue = 945.848", fillcolor="#f2be99"] ;
1316 -> 1317 ;
1318 [label="(...)", fillcolor="#C0C0C0"] ;
1317 -> 1318 ;
1427 [label="(...)", fillcolor="#C0C0C0"] ;
1317 -> 1427 ;
1446 [label="roof_tilt <= 43.5\nmse = 13501.022\nsamples = 64\nvalue = 753.594", fillcolor="#f5ceb2"] ;
1316 -> 1446 ;
1447 [label="(...)", fillcolor="#C0C0C0"] ;
1446 -> 1447 ;
1544 [label="(...)", fillcolor="#C0C0C0"] ;
1446 -> 1544 ;
}